tree
version=v4
num_class=8
num_tree_per_iteration=8
label_index=0
max_feature_idx=39
objective=multiclass num_class:8
feature_names=p_avg_velo p_swstr_pct p_csw_pct p_zone_pct p_k_pct p_bb_pct p_pct_fastball p_pct_slider p_pct_curve p_pct_change p_pct_cutter p_whiff_fastball p_whiff_slider p_whiff_curve p_whiff_change p_whiff_cutter p_gb_rate p_fb_rate p_ld_rate b_k_pct b_bb_pct b_xba b_xslg b_avg_ev b_hard_hit_pct b_chase_rate b_whiff_pct b_barrel_pct p_throws_L b_stands_L platoon_same platoon_opposite park_factor_hr park_factor_hit temp_f wind_mph wind_out umpire_k_delta umpire_bb_delta score_diff
feature_infos=[53.083332061767578:98.348236083984375] [0:0.24637681245803833] [0.075000002980232239:0.5] [0:0.76923078298568726] [0:1] [0:0.5] [0:1] [0:0.90736043453216553] [0:0.66888046264648438] [0:0.83246076107025146] [0:0.79434448480606079] [0:0.5] [0:1] [0:1] [0:1] [0:1] [0:1] [0:0.69999998807907104] [0:0.66666668653488159] [0:1] [0:0.5] [0.053199999034404755:0.70999997854232788] [0.062399998307228088:1.2972475290298462] [25.100000381469727:99.699996948242188] [0:1] [0:0.83333331346511841] [0:1] none [0:1] [0:1] [0:1] [0:1] none none none none none none none none
tree_sizes=3153 3365 3250 3350 3151 2656 2855 3435 3366 3370 2787 3482 3365 3239 2908 3487 3475 3334 3141 3482 3153 2805 2917 3485 3474 3252 3440 3468 3004 3048 3155 3387 3487 3366 3228 3491 3040 3477 3048 3497 3370 3492 3006 3489 2715 2829 3446 3512 3483 3472 2842 3488 3255 3144 2926 3497 3472 3133 2827 3479 2735 2724 2953 3505 3476 3347 3346 3488 2700 2926 3256 3506 3476 3267 2925 3159 2713 2591 3155 3500 3470 3482 3241 3474 3335 2825 3268 3390 3483 3168 2838 3468 2723 2843 2930 3401 3158 3470 3140 3488 2718 3146 3026 3498 3510 3474 2379 3478 3474 2406 3241 3485 3487 3486 3053 3247 2732 2372 3375 3502 3478 3159 3461 3366 3374 2749 3062 3510 3481 3177 2820 3278 2518 3256 3048 3450 3373 3159 2609 3049 2628 3004 2949 3492 3486 3378 3240 3078 2625 2726 2613 3511 3386 3393 2846 3178 2615 2270 3038 3497 3480 3128 3478 3056 2156 2817 3086 3265 3499 3164 2604 2907 3483 3131 2830 3374 3175 3472 2405 3486 2521 2184 2929 2622 3371 3247 3038 3490 2078 2513 2724 3505 3263 3178 3031 3169 3354 2270 3222 3062 3273 3376 2401 2744 1653 2924 3178 3071 3180 3350 2801 2847 2580 3038 2849 2100 3182 3487 2615 2930 2822 2289 2935 2529 3378 3166 3250 2825 2838 3275 3031 3493 3262 3056 3364 2907 2956 2202 3367 3463 3159 2813 3374 2932 1646 2409 3047 2103 3157 3017 2865 2519 2614 3393 2720 3043 3158 3501 3149 2513 2719 2730 3148 3269 3239 3369 2605 2698 2075 2184 2831 2221 3476 3165 2722 3378 2617 2175 3335 2731 3147 2585 2398 3479 1660 2838 2846 3485 2949 3262 3008 2408 2934 2185 2969 3066 2634 3154 3130 2731 2501 2090 3049 2189 3371 3021 3473 3385 2086 1973 3253 2198 3497 3038 2501 3263 1879 2307 2799 2947 2614 3014 2684 2923 2496 2167 2493 3364 2816 2506 2998 2806 3437 2295 3208 3267 2717 3458 2381 3014 2508 2194 2987 3459 2598 2944 3038 2729 3138 2870 3214 3314 2692 3023 3121 2705 2488 2812 2804 3339 2829 3227 3443 2613 2470 2818 3042 3225 2038 2143 2562 2692 2795 2384 2048 2374 2940 3152 2611 2715 1756 2476 2701 2670 2724 3460 3245 2709 1861 2400 1850 2162 2710 3132 2716 2944 2932 2814 2925 2192 3031 3367 3240 2945 2792 2279 3251 2294 3031 3250 3001 3431 2819 2342 2935 3133

Tree=0
num_leaves=29
num_cat=0
split_feature=19 19 1 19 2 2 19 19 1 19 19 19 2 2 2 16 14 12 19 2 13 12 9 26 26 11 24 17
split_gain=463.329 158.215 129.426 112.856 102.904 49.5859 32.3512 26.0098 23.3831 22.8671 21.6187 18.3172 18.2265 18.1265 17.085 15.8767 14.3902 13.0678 12.6213 9.8714 7.60914 7.5312 7.15719 5.75947 8.84538 7.78682 2.581 1.99467
threshold=0.27622890472412115 0.15911622345447543 0.10195771604776384 0.45566779375076299 0.29417613148689276 0.28963632881641393 0.34417791664600378 0.21443030983209613 0.098192673176527037 0.20014727860689166 0.57919254899024974 0.23704010993242267 0.29284588992595678 0.27656522393226629 0.23403409868478778 0.50335136055946361 0.4014925360679627 0.6085423231124879 0.11408293619751932 0.25188353657722479 0.31006328761577612 0.5039682686328889 0.020744302310049537 0.11500224843621255 0.12030868604779245 0.25511321425437933 0.12384155020117761 0.23824266344308856
decision_type=2 2 2 2 2 2 2 2 2 2 2 2 2 2 2 10 8 10 2 2 10 10 2 2 2 10 10 10
left_child=1 12 9 4 6 11 8 -7 -2 20 19 -4 18 -11 -8 17 -17 -6 27 -5 -3 -20 -21 25 -25 -14 -12 -1
right_child=3 2 5 10 15 7 14 -9 -10 13 26 -13 23 -15 -16 16 -18 -19 21 22 -22 -23 -24 24 -26 -27 -28 -29
leaf_value=-1.5304651697950984 -1.4786763326675618 -1.504981925493478 -1.4815616485700387 -1.46804966388085 -1.4250655882705092 -1.4720727792906172 -1.4931139766446127 -1.4560438770003836 -1.4602335354632938 -1.490012300319222 -1.3344668882042361 -1.4692246932142385 -1.5177832938488243 -1.4719490575802534 -1.4425890096055425 -1.470139448422791 -1.425058248858514 -1.4990653667079998 -1.5026322273004813 -1.4558244798122151 -1.4870273048742675 -1.4626239787358619 -1.393022907946013 -1.4275141486019522 -1.487870388658401 -1.4640318430978818 -1.4037530358945924 -1.513747971927716
leaf_weight=41.331372484564781 284.68242901563644 296.37618318200111 906.66918079555035 6.8549593389034262 302.22306026518345 445.9755899310112 17.339014798402786 588.1151879876852 430.04789029061794 725.8192241191864 16.734165444970134 448.79822024703026 31.653782829642296 170.76913411915302 221.77809625864029 46.775016665458679 28.024686709046364 5.4436441808938971 588.31680443882942 6.2501099854707709 77.219100788235664 11.290521264076231 36.089344754815102 5.2420277297496787 223.99587722122669 7.8630415946245185 5.6452606320381156 71.170607253909111
leaf_count=205 1412 1470 4497 34 1499 2212 86 2917 2133 3600 83 2226 157 847 1100 232 139 27 2918 31 383 56 179 26 1111 39 28 353
internal_value=-1.4752 -1.48282 -1.47804 -1.45008 -1.45341 -1.47118 -1.46222 -1.46294 -1.46758 -1.49093 -1.38929 -1.47747 -1.50064 -1.48657 -1.44633 -1.43152 -1.45274 -1.42646 -1.50484 -1.41036 -1.50133 -1.50185 -1.40152 -1.48943 -1.48627 -1.50695 -1.34793 -1.52037
internal_weight=6048.49 4640.61 3659.74 1407.89 1336.31 2389.56 953.847 1034.09 714.73 1270.18 71.5738 1355.47 980.864 896.588 239.117 382.466 74.7997 307.667 712.109 49.1944 373.595 599.607 42.3395 268.755 229.238 39.5168 22.3794 112.502
internal_count=30000 23017 18152 6983 6628 11852 4731 5129 3545 6300 355 6723 4865 4447 1186 1897 371 1526 3532 244 1853 2974 210 1333 1137 196 111 558
is_linear=0
shrinkage=1


Tree=1
num_leaves=31
num_cat=0
split_feature=20 5 5 20 5 20 20 20 5 19 13 5 5 7 11 25 21 5 20 20 9 3 19 3 9 16 5 7 13 6
split_gain=262.996 141.359 105.428 44.4995 39.3301 33.8989 22.1945 17.6407 17.5144 17.0198 16.754 15.5139 12.6709 12.246 17.9737 12.6609 10.9541 10.755 10.2072 9.37911 9.08402 8.0216 7.72024 8.2572 6.40249 5.40768 4.59387 2.25357 1.93499 0.175856
threshold=0.099073916673660292 0.092653911560773863 0.088998902589082732 0.064934674650430693 0.13598633557558062 0.07375217974185945 0.12846796959638598 0.1232045851647854 0.12135372683405878 0.23704010993242267 0.28647416830062872 0.24025487154722217 0.036828378215432174 0.27362543344497686 0.082220718264579787 0.18509259074926379 0.30738815665245062 0.060802012681961067 0.042403355240821845 0.033060109242796905 0.239299550652504 0.40955701470375067 0.22055910527706149 0.52103695273399364 0.18918941169977191 0.39951923489570623 0.068398561328649535 0.41613559424877172 0.50531914830207836 0.22865247726440432
decision_type=2 2 2 2 2 2 2 2 2 2 8 2 2 2 10 10 8 2 2 2 2 2 2 2 2 10 2 2 8 2
left_child=2 7 5 11 13 18 9 22 21 -6 -8 19 28 15 -15 -3 -14 27 29 -4 -10 -5 23 -2 -24 -19 -20 -7 -9 -1
right_child=1 4 3 8 6 17 10 12 20 -11 -12 -13 16 14 -16 -17 -18 25 26 -21 -22 -23 24 -25 -26 -27 -28 -29 -30 -31
leaf_value=-2.4366934753227358 -2.4026513376905667 -2.3434127627002215 -2.4520130882573747 -2.3537485655866539 -2.3928054338504832 -2.4390802864098555 -2.3776078433819596 -2.4584483749093202 -2.3853916220621758 -2.3315729357711068 -2.2852526276218339 -2.3137029183172921 -2.4172720600008168 -2.3020684888928522 -2.4014463895698333 -2.377887668686391 -2.391161326348314 -2.4134630443598248 -2.4464392830751449 -2.4252942571637752 -2.4247069862869748 -2.4108822568605821 -2.4300679592232384 -2.4320240168586538 -2.4091317132830934 -2.426521807510575 -2.4360317659013786 -2.4168770633237893 -2.4140571700458398 -2.4588914006624059
leaf_weight=4.6471718698739997 116.64401393383741 33.831411212682724 37.456205271184444 5.2977759316563597 24.258237160742283 160.97803357243538 7.6213618665933636 8.9225699901580775 143.03995015472174 22.771142162382603 24.165293723344803 1.9518121853470791 50.654173381626606 3.9036243706941596 76.678335852921009 160.14154263585806 184.77155354619026 116.08635330945253 229.66323380917311 245.83539191633463 15.70744092017412 310.70991121977568 126.58896173536777 28.998352468013763 50.096512757241726 243.23297566920519 226.03843975067139 12.91913779824972 2.8812465593218812 111.81095518916845
leaf_count=50 1255 364 403 57 261 1732 82 96 1539 245 260 21 545 42 825 1723 1988 1249 2471 2645 169 3343 1362 312 539 2617 2432 139 31 1203
internal_value=-2.41575 -2.39394 -2.42655 -2.41223 -2.36914 -2.4364 -2.33797 -2.40939 -2.40285 -2.36192 -2.3054 -2.4278 -2.39937 -2.37836 -2.39524 -2.37151 -2.39678 -2.42729 -2.44486 -2.42896 -2.38934 -2.40972 -2.41708 -2.4086 -2.4241 -2.42229 -2.44134 -2.43748 -2.44794 -2.45823
internal_count=30000 9930 20070 8177 3802 11893 848 6128 5108 506 342 3069 2660 2954 867 2087 2533 5737 6156 3048 1708 3400 3468 1567 1901 3866 4903 1871 127 1253
is_linear=0
shrinkage=1


Tree=2
num_leaves=30
num_cat=0
split_feature=12 0 5 17 26 22 1 16 2 25 18 7 9 23 23 9 0 1 9 23 6 15 24 22 22 22 22 10 23
split_gain=12.8408 16.8472 14.1642 13.0221 10.6281 13.3657 10.1714 9.80647 13.682 8.75001 14.0553 8.40882 8.34573 9.17302 10.2055 4.78526 4.63555 4.39114 5.70489 4.34678 6.1696 4.03482 3.74698 2.70581 2.65414 1.38251 1.15564 1.06818 1.16219
threshold=0.22653958946466449 90.520896911621108 0.15510558336973193 0.29326352477073675 0.26242870092391973 0.42861148715019232 0.12304222211241723 0.50482636690139782 0.25523735582828527 0.29203644394874578 0.22190656512975696 0.3699206560850144 0.21992310881614688 83.062103271484389 82.868705749511733 0.20479062199592593 87.565582275390639 0.090271633118391051 0.49031154811382299 85.622722625732436 0.48505464196205145 0.17137862741947177 0.21880896389484408 0.44984693825244909 0.40976268053054815 0.78487610816955578 0.71818843483924877 0.2230753228068352 83.117523193359389
decision_type=8 2 2 8 2 10 2 8 2 10 10 2 2 8 10 2 2 2 2 8 2 10 10 8 10 10 8 2 10
left_child=1 7 12 4 5 -3 9 19 26 10 -4 -10 13 14 -2 -15 -11 21 -19 22 -21 -14 -1 -6 -8 -26 -9 -5 -29
right_child=2 3 6 27 23 -7 24 8 11 16 -12 -13 17 15 -16 -17 -18 18 -20 20 -22 -23 -24 -25 25 -27 -28 28 -30
leaf_value=-4.4966715822601167 -4.5100683000715058 -4.5280685195748029 -4.5178242210281248 -4.5382765767154041 -4.4466534587597613 -4.3165202445351305 -4.4616750951620432 -4.5427219835793844 -4.3497550588710681 -4.4375582249406982 -4.3453418953009679 -4.5128949098789208 -4.5207568165033516 -4.5280224037095227 -4.4590372873842927 -4.4720534270422458 -4.54189289329471 -4.5422064023710043 -4.4655204802193733 -4.3980460349961392 -4.5328626252733466 -4.4504260859227829 -4.5319932628552104 -4.5368312919199045 -4.5471421612898544 -4.4856228121025037 -4.4856228121025037 -4.5264997104487863 -4.4632703719043834
leaf_weight=10.400147382169964 136.88775630667806 0.69416955113410717 1.5246938355267028 1.6114650294184694 0.26031358167529073 3.1113670952618122 0.45864773914217938 2.4171975441277023 2.0825086534023289 0.58260658755898509 2.9626164771616459 1.0908378660678861 7.2268008626997453 96.886235922574997 9.5944148674607259 2.9874082468450061 2.2312592715024948 55.905440635979176 1.6114650294184674 0.81812839955091377 1.0288584418594835 1.7106321081519125 20.849878303706646 1.4255267567932606 3.929495494812727 0.24791769683361042 0.24791769683361042 0.60739835724234581 0.48343950882554054
leaf_count=839 11043 56 123 130 21 251 37 195 168 47 239 88 583 7816 774 241 180 4510 130 66 83 138 1682 115 317 20 20 49 39
internal_value=-4.51289 -4.48879 -4.51646 -4.42778 -4.38933 -4.35128 -4.46521 -4.50356 -4.44903 -4.43194 -4.39508 -4.39198 -4.51857 -4.51428 -4.50635 -4.52591 -4.50751 -4.53416 -4.5392 -4.51463 -4.45554 -4.50287 -4.51994 -4.50529 -4.52178 -4.53796 -4.53005 -4.51682 -4.49054
internal_weight=371.877 47.1292 324.747 8.19368 5.49138 3.80554 11.9372 38.9355 5.83846 7.30118 4.48731 3.17335 312.81 246.356 146.482 99.8736 2.81387 66.4543 57.5169 33.097 1.84699 8.93743 31.25 1.68584 4.63606 4.17741 2.66512 2.7023 1.09084
internal_count=30000 3802 26198 661 443 307 963 3141 471 589 362 256 25235 19874 11817 8057 227 5361 4640 2670 149 721 2521 136 374 337 215 218 88
is_linear=0
shrinkage=1


Tree=3
num_leaves=31
num_cat=0
split_feature=19 19 4 21 7 1 16 25 5 4 14 16 4 2 14 2 12 7 4 26 25 11 21 9 4 16 14 23 12 2
split_gain=67.1411 40.051 24.8153 21.3155 18.3655 15.5668 15.087 13.8689 12.8663 11.4958 16.9842 13.7841 10.7687 10.3276 9.75591 9.35695 10.4494 9.2882 9.21342 9.10714 9.05227 8.30827 7.55701 7.88165 6.47158 6.23154 13.8298 5.6988 5.68103 4.62088
threshold=0.27957420051097875 0.14059797674417499 0.22119639068841937 0.32784330844879156 0.33441625535488134 0.11827835440635683 0.39831377565860754 0.33401153981685644 0.081130944192409529 0.20631361752748492 0.33743514120578771 0.40075758099555975 0.13220154494047168 0.33640418946743017 0.22934930771589282 0.25463956594467169 0.39373520016670233 0.0018168986425735059 0.27956241369247442 0.13390487432479861 0.17429208755493167 0.065395578742027297 0.2881831973791123 0.36861360073089605 0.19889631867408755 0.29132513701915747 0.10172414034605028 81.510978698730483 0.28637158870697027 0.32817023992538458
decision_type=2 2 2 10 2 2 10 10 2 2 10 10 2 2 8 2 10 2 2 2 10 8 10 2 2 10 8 10 8 2
left_child=1 5 4 15 12 20 25 -6 14 10 -8 -11 -3 -10 -4 16 21 18 -7 -19 -1 -2 29 -24 -22 26 -5 -18 -27 -17
right_child=3 2 8 6 7 17 9 -9 13 11 -12 -13 -14 -15 -16 22 27 19 -20 -21 24 -23 23 -25 -26 28 -28 -29 -30 -31
leaf_value=-1.9938498064874446 -1.9304010045729878 -1.9549358406920645 -1.984890546608578 -1.9034328508627962 -1.9597104728410184 -1.9109224640260951 -1.9681660147396172 -1.918151525409699 -1.9817164131961895 -1.8999441398961221 -1.9088626321210003 -1.9833396557522609 -1.9728351296354991 -2.0101137211109328 -1.9709069812751252 -2.0118577136715303 -1.897075096704528 -1.9606430935987353 -1.9768515405036413 -1.9882477628648945 -1.9370722259039426 -1.9904430236136135 -1.9953398242837141 -1.9441707645678585 -1.9550783951509914 -1.9814227250815075 -1.9906729629051474 -1.9785798086073989 -2.0042984412577804 -1.9743123094433421
leaf_weight=9.826077461242674 5.1859853267669669 90.891216516494751 156.94429278373718 5.0495120286941555 108.63274526596069 11.054337143898012 94.575995564460754 24.29224705696106 815.83737587928772 4.0941989421844474 12.964963316917418 175.50466132164001 1010.4482989311218 32.480644941329956 590.24701416492462 113.81873059272766 4.3671455383300772 54.179899334907532 9.1437109708785993 64.142450094223022 99.352560997009277 83.248711824417114 241.42126429080963 6.8236649036407462 113.40931069850922 41.078462719917297 17.195635557174683 3.2753591537475586 86.251124382019043 8.4613444805145246
leaf_count=72 38 666 1150 37 796 81 693 178 5978 30 95 1286 7404 238 4325 834 32 397 67 470 728 610 1769 50 831 301 126 24 632 62
internal_value=-1.97592 -1.97252 -1.97452 -1.98795 -1.9692 -1.95686 -1.97998 -1.9517 -1.97864 -1.97328 -1.96042 -1.981 -1.97134 -1.98285 -1.97386 -1.99537 -1.98133 -1.97012 -1.93964 -1.97563 -1.94869 -1.9864 -1.99897 -1.99379 -1.9465 -1.99281 -1.96882 -1.92885 -1.99706 -2.00923
internal_count=30000 23381 20735 6619 9044 2646 3200 974 11691 2104 788 1316 8070 6216 5475 3419 704 1015 148 867 1631 648 2715 1819 1559 1096 163 56 933 896
is_linear=0
shrinkage=1


Tree=4
num_leaves=29
num_cat=0
split_feature=19 4 22 13 12 18 19 9 6 4 9 28 26 13 9 18 8 8 18 22 14 14 18 3 7 3 6 12
split_gain=21.7896 21.7615 20.8811 11.6709 16.757 13.6628 10.4092 11.186 9.91903 9.41435 12.7294 9.63761 8.33968 8.25699 15.4907 8.15865 9.3674 8.14677 7.77348 7.14564 7.23027 8.28056 7.25222 5.79128 2.92043 7.34738 2.45681 0.526232
threshold=0.25577834248542791 0.18217893689870837 0.55168628692626964 0.23294574022293094 0.25893996655941015 0.19939759373664859 0.11408293619751932 0.23503901809453967 0.4539638906717301 0.12556306272745135 0.091115586459636702 1.0000000180025095e-35 0.277408316731453 0.22074641287326816 0.038626953959465034 0.26648551225662237 0.11949372664093973 0.1567143797874451 0.25267770886421209 0.42465063929557806 0.16908311098814013 0.18857758492231372 0.26778683066368109 0.53616341948509227 0.36440727114677435 0.45524613559246069 0.65281409025192272 0.33238095045089727
decision_type=2 2 10 10 8 10 2 2 2 2 2 2 2 10 2 10 2 2 10 10 10 10 10 2 2 2 2 10
left_child=1 2 15 5 -5 -4 7 17 -9 10 27 12 -12 18 -15 23 -17 -3 -8 24 22 -22 -21 -1 26 -26 -11 -2
right_child=9 6 3 4 -6 -7 13 8 -10 19 11 -13 -14 14 -16 16 -18 -19 -20 20 21 -23 -24 -25 25 -27 -28 -29
leaf_value=-3.1724303074525011 -3.1970785838486497 -3.1682765792180558 -3.1677504592002301 -3.0982477078005206 -3.1797527555877236 -3.1009150212050445 -3.1744215483051637 -3.1708955159330454 -3.0354430317892747 -3.198223825296155 -3.1648058979074243 -3.1874351263905609 -3.0263390068112774 -3.1747153100682159 -3.1523874173081565 -3.1557531617651975 -3.0962555999290062 -3.107356332548675 -3.1583163996547836 -3.1883382461211598 -3.1270903333799409 -3.1683044879985287 -3.1571756832165354 -3.1270567664636117 -3.0981616504563081 -3.1924939932318237 -3.1584711002430597 -3.1615662939864366
leaf_weight=65.280113071203232 3.3797505348920804 17.593221962451942 8.7966109812259656 8.4262273609638232 18.056201487779617 46.251654580235481 232.73980738222599 1.6667262911796559 3.5649423450231552 42.223732709884644 1.2963426709175108 1.3889385759830473 3.6112402975559235 106.57788673043251 277.88031110167503 22.454506978392605 8.7040150761604291 6.8057990223169318 109.077976167202 85.188232660293579 11.759679943323134 264.2224151045084 23.102678313851357 6.8520969748497 2.0834078639745703 5.2316686362028122 3.7964321076869956 0.92595905065536488
leaf_count=1410 73 380 190 182 390 999 5027 36 77 912 28 30 78 2302 6002 485 188 147 2356 1840 254 5707 499 148 45 113 82 20
internal_value=-3.16297 -3.15865 -3.14332 -3.12455 -3.15259 -3.11158 -3.16242 -3.13387 -3.07375 -3.17203 -3.12757 -3.08658 -3.05788 -3.16362 -3.1586 -3.1584 -3.13742 -3.14996 -3.16927 -3.1732 -3.17075 -3.16641 -3.18165 -3.16762 -3.19023 -3.16167 -3.19481 -3.18967
internal_count=30000 20319 3992 1761 572 1189 16327 640 113 9681 229 136 15687 726 384 103 31 27 341 437 384 275 108 72 53 7 46 4
is_linear=0
shrinkage=1


Tree=5
num_leaves=24
num_cat=0
split_feature=24 4 22 7 4 14 6 5 1 6 20 24 15 16 5 1 13 20 19 18 8 11 11
split_gain=7.1967 8.19579 7.93765 6.77497 8.06374 11.2766 9.23798 6.15466 5.52676 6.3943 9.00916 5.27985 4.81001 3.86389 3.37642 2.90831 2.86437 5.04209 6.56091 2.79093 2.69531 2.00679 0.958067
threshold=0.20077253133058551 0.13532593846321109 0.44004501402378088 0.22792795300483706 0.21662826836109164 0.21807064861059192 0.5129305124282838 0.069612909108400359 0.088601149618625655 0.45299977064132696 0.066400632262229933 0.1524714678525925 0.30395962297916418 0.32871840894222265 0.08818544447422029 0.080075375735759749 0.036967419087886817 0.092689663171768202 0.20102194696664813 0.21941667050123217 0.0098407426849007624 0.2517931610345841 0.26904477179050451
decision_type=8 2 8 2 2 8 2 2 2 2 2 10 8 10 2 2 10 2 2 10 2 10 8
left_child=1 2 11 4 5 15 -7 12 -3 19 -11 -1 -6 -9 -13 -2 17 20 -19 -10 -5 -18 -23
right_child=3 8 -4 16 7 6 -8 13 9 10 -12 14 -14 -15 -16 -17 21 18 -20 -21 -22 22 -24
leaf_value=-5.5596166251719303 -5.538650587402639 -5.5896702346852063 -5.5682547278124437 -5.5913646039743874 -5.5731215414083621 -5.4822125604948875 -5.5538380001421332 -5.5302442077804832 -5.5285984748055128 -5.4777273374764768 -5.5488384211466695 -5.3111043819342481 -5.5114316208524601 -5.5881578443370072 -5.5553863976463287 -5.5925761755577827 -5.5965329833839803 -5.4859974657641981 -5.5663132935172746 -5.5908387220017364 -5.5243517129142434 -5.5204195433635581 -5.5721882860199505
leaf_weight=0.23330390173942084 2.9405095539987105 4.0894212210550931 0.57665681373327982 11.493518630973995 4.6924897972494337 10.864038292318584 7.5581660242751232 2.4606958692893413 1.6727449558675314 7.1355778248980668 10.674753994680939 0.17607841640710831 6.2727935845032343 21.375919751822948 0.1144509706646204 6.294803386554122 16.793478964827958 2.8744801478460413 6.550117090344429 4.7937348866835237 0.85398031957447607 0.76153915096074221 0.80555875506252062
leaf_count=53 668 929 131 2611 1066 2468 1717 559 380 1621 2425 40 1425 4856 26 1430 3815 653 1488 1089 194 173 183
internal_value=-5.55536 -5.534 -5.43793 -5.56165 -5.55139 -5.53162 -5.50975 -5.56719 -5.54177 -5.53247 -5.51747 -5.37687 -5.53753 -5.58121 -5.33666 -5.57496 -5.57743 -5.5642 -5.53799 -5.57264 -5.58438 -5.59159 -5.54517
internal_count=30000 6694 250 23306 14189 6283 4185 7906 6444 5515 4046 119 2491 5415 66 2098 9117 4946 2141 1469 2805 4171 356
is_linear=0
shrinkage=1


Tree=6
num_leaves=26
num_cat=0
split_feature=22 17 17 22 26 22 29 16 16 15 2 4 20 6 0 8 22 8 19 17 14 30 7 12 25
split_gain=156.045 63.8045 31.0435 19.6488 21.7511 15.9872 13.711 12.6509 12.3867 12.1425 11.9244 11.3696 10.0235 9.0779 8.78926 6.84774 6.81758 6.26921 5.43187 4.92908 11.5553 7.2641 0.996125 0.983841 0.167867
threshold=0.54838192462921154 0.27529583871364599 0.45618839561939245 0.69445493817329418 0.14005071669816974 0.38598732650280004 1.0000000180025095e-35 0.52707740664482128 0.38405527174472814 0.15936508029699328 0.24602837860584262 0.17554135620594027 0.10586712509393693 0.53495183587074291 89.37937164306642 0.38482850790023809 0.49212294816970831 0.12460692599415781 0.19592355936765674 0.39863014221191412 0.25586470961570745 1.0000000180025095e-35 0.57402652502059948 0.63818180561065685 0.50362318754196178
decision_type=10 10 8 10 2 10 2 10 10 8 2 2 2 2 2 2 10 2 2 10 8 2 2 10 10
left_child=5 3 9 4 17 22 -4 -6 19 12 -11 14 -3 -13 -5 16 -10 -2 -17 21 -21 -7 23 24 -1
right_child=1 2 6 11 7 8 -8 -9 15 10 -12 13 -14 -15 -16 18 -18 -19 -20 20 -22 -23 -24 -25 -26
leaf_value=-3.4456596496131757 -3.2531021294117055 -3.3059614628639533 -3.1487770735598741 -3.3724140763093531 -3.4006483244733698 -3.3966329065094447 -3.3985512071274107 -3.4278977638406785 -3.4304789274403604 -3.3329394376265209 -3.374740762680752 -3.3743262868701107 -3.3791103210424969 -3.4077354732919627 -3.2972700064981648 -3.3238422184169294 -3.4159063726882475 -3.403154212219722 -3.4182166385886545 -3.4372662514437282 -3.3329868079674676 -3.4220290732851204 -3.3985512071274107 -3.3995451515362736 -3.4164422542844139
leaf_weight=70.641726791858673 2.0214854180812831 14.37092360854149 1.4701712131500237 12.680226713418962 206.92659825086594 61.526665270328522 0.80859416723251332 52.521866589784622 199.28170794248581 19.25924289226532 152.16272056102753 52.154323786497116 8.2329587936401349 32.159995287656784 5.8806848526000968 2.1317482590675345 141.87152206897736 0.99236556887626637 2.3155196607112885 3.4916566312313053 5.8439305722713479 50.096084088087082 0.80859416723251243 0.84534844756126304 2.1317482590675345
leaf_count=1922 55 391 40 345 5630 1674 22 1429 5422 524 4140 1419 224 875 160 58 3860 27 63 95 159 1363 22 23 58
internal_value=-3.4032 -3.38475 -3.36184 -3.39716 -3.40442 -3.42235 -3.20743 -3.40622 -3.41883 -3.36467 -3.36964 -3.37875 -3.33024 -3.38703 -3.34415 -3.42364 -3.42449 -3.28894 -3.36763 -3.405 -3.372 -3.40805 -3.44381 -3.44443 -3.44506
internal_count=30000 15281 5341 9940 7141 14719 62 7059 12694 5279 4664 2799 615 2294 505 9403 9282 82 121 3291 254 3037 2025 2003 1980
is_linear=0
shrinkage=1


Tree=7
num_leaves=31
num_cat=0
split_feature=19 11 22 22 13 26 19 20 21 17 11 18 21 2 2 22 15 18 17 23 14 19 6 0 13 11 26 17 23 14
split_gain=155.235 54.5651 52.6932 40.4874 26.764 23.6728 18.3851 18.6791 17.6144 15.8845 15.8514 14.5521 13.349 12.092 10.7121 10.9438 10.1402 9.88245 9.85648 10.604 9.76874 8.84272 8.30636 8.19012 7.17916 6.77754 6.5786 6.10825 4.31486 2.92888
threshold=0.21443030983209613 0.17555713653564456 0.49538597464561468 0.76984986662864696 0.25660979747772222 0.29825000464916235 0.33741709589958196 0.066987819969654097 0.35892091691493994 0.31660671532154089 0.19704761356115344 0.28295679390430456 0.34684807062149053 0.28799624741077429 0.29259897768497473 0.36968767642974859 0.061737805604934699 0.21993657201528552 0.29085513949394232 83.094020843505874 0.3410427868366242 0.54692083597183239 0.50617977976799022 83.869663238525405 0.31311275064945226 0.16991686820983889 0.17272139340639117 0.13177453726530078 84.867355346679702 0.17890835553407672
decision_type=2 8 8 8 8 2 2 2 8 10 8 10 10 2 2 10 8 10 10 10 10 2 2 2 8 8 2 10 10 10
left_child=2 3 11 5 16 9 7 20 10 -2 -6 14 -9 -7 15 -1 28 -10 19 -5 -3 24 -18 -16 -8 27 -27 -13 -4 -20
right_child=1 6 4 18 8 13 21 12 17 -11 -12 25 -14 -15 23 -17 22 -19 29 -21 -22 -23 -24 -25 -26 26 -28 -29 -30 -31
leaf_value=-0.75894965769922329 -0.78607103289906211 -0.78816111703899339 -0.81517803877084449 -0.83839547048288277 -0.78669864955506918 -0.79492131220819862 -0.80198729175291172 -0.80128820965414815 -0.78995581050506714 -0.80242495847064299 -0.79863047070105964 -0.75787854866942916 -0.81153038989996673 -0.8107174445824421 -0.7552784261178368 -0.77483968253564073 -0.77228400001908248 -0.81188548307100772 -0.81662086576695248 -0.80254778341342392 -0.80565264053456587 -0.84770120316828323 -0.78492454304773263 -0.78446636625592281 -0.81883169282817403 -0.76849986562707118 -0.79643792213569164 -0.80602362508325576 -0.77170977644665428 -0.84296600215153283
leaf_weight=125.73305726051331 1522.9558151960373 321.41220718622208 26.902343332767487 22.371422350406647 870.50319373607635 478.29534620046616 103.07845234870911 1087.9874008893967 73.061100840568542 163.39633792638779 407.78288841247559 6.2300163507461539 453.65846335887909 161.98042511940002 24.920065402984619 866.53863787651062 271.57207638025284 167.64407634735107 24.920065402984619 196.81188017129898 105.06073027849197 18.973231613636017 254.86430525779724 375.21689385175705 175.57318806648254 44.176479578018188 38.512828350067139 73.061100840568542 6.2300163507461539 26.052795648574829
leaf_count=444 5378 1135 95 79 3074 1689 364 3842 258 577 1440 22 1602 572 88 3060 959 592 88 695 371 67 900 1325 620 156 136 258 22 92
internal_value=-0.79201 -0.797852 -0.784192 -0.792901 -0.789405 -0.790773 -0.803521 -0.801755 -0.792847 -0.787664 -0.790511 -0.777231 -0.804316 -0.798948 -0.775582 -0.77279 -0.780067 -0.805228 -0.811187 -0.806423 -0.79248 -0.815105 -0.778369 -0.782549 -0.812676 -0.791451 -0.781469 -0.801801 -0.806503 -0.830904
internal_count=30000 17171 12829 9170 7340 8216 8001 6950 5364 5955 4514 5489 5444 2261 4917 3504 1976 850 954 774 1506 1051 1859 1413 984 572 292 280 117 180
is_linear=0
shrinkage=1


Tree=8
num_leaves=30
num_cat=0
split_feature=19 19 2 1 19 19 19 19 1 2 1 11 2 19 13 2 6 1 19 21 19 1 14 0 17 13 17 24 14
split_gain=410.47 122.433 110.669 103.327 67.3973 46.7765 40.1242 26.4191 25.8732 24.7691 20.2451 19.5244 17.6672 15.6219 14.87 13.1995 12.7769 12.5288 11.8987 10.1864 8.97531 8.72474 8.54795 8.24616 7.73785 6.13227 5.8764 1.63487 0.868754
threshold=0.24798139929771426 0.35247059166431433 0.27656522393226629 0.12729943543672564 0.15942887961864474 0.57919254899024974 0.15660070627927783 0.21695759147405627 0.098192673176527037 0.25890816748142248 0.10280183702707292 0.19467984884977343 0.29417613148689276 0.25898236036300665 0.30455486476421362 0.28119832277297979 0.5761021375656129 0.099736005067825331 0.27511468529701238 0.34712621569633489 0.11408293619751932 0.12837404012680056 0.14174107462167743 85.821670532226577 0.25056053698062902 0.3835271298885346 0.29085513949394232 0.12384155020117761 0.41876831650733953
decision_type=2 2 2 2 2 2 2 2 2 2 2 8 2 2 10 2 2 2 2 10 2 2 10 2 10 10 10 10 10
left_child=2 3 6 8 21 9 20 17 15 23 22 -9 16 -14 -11 -2 -5 -6 -10 -12 28 25 -8 -3 -23 -4 -22 -7 -1
right_child=1 5 4 12 7 27 10 11 18 14 19 -13 13 -15 -16 -17 -18 -19 -20 -21 26 24 -24 -25 -26 -27 -28 -29 -30
leaf_value=-0.048081081672967811 -0.0060188540638192031 -0.020740965298068043 -0.026860639119827241 0.009587625931723057 -0.019409918715667336 0.1227292818923558 -0.028518862652767242 0.004426010516396529 0.0036529752605563323 0.03788230031251151 -0.0042130858271915012 0.023170160947257185 0.013593529625687368 0.042546516720830957 0.065929814382963844 0.018502691058191419 0.036858134968035049 0.00052665161102358204 0.015671868744566362 -0.020104238302597555 -0.032030822596942177 0.0031430815983413841 -0.016545139375569742 0.021989601475706975 -0.01720006328600885 -0.0063979892884162004 -0.018070429291023083 0.064713058645113924 -0.017516558162761826
leaf_weight=76.307083249092102 495.8993768543005 13.089068233966826 228.21236830949783 131.98820117115974 87.057364597916603 18.266072094440464 200.15130092203617 329.44534873962402 360.97452306747437 139.0053828060627 493.47268383204937 241.05693760514259 57.786870181560516 283.85689833760262 78.779536455869675 60.645055994391441 64.014949068427086 745.91244089603424 484.82565556466579 126.49803093075752 267.65213485062122 73.648199334740639 638.85736864805222 56.538716599345207 123.98071129620075 45.25786167383194 114.54832276701927 5.9471563547849646 4.4860873669385901
leaf_count=391 2467 64 1150 648 437 83 1006 1625 1781 669 2459 1183 283 1374 378 298 314 3702 2369 629 1354 369 3211 276 621 228 580 28 23
internal_value=-7.72131e-06 0.0169011 -0.010039 0.0122108 -0.00139028 0.0459517 -0.0184667 0.00410135 0.00505287 0.0400177 -0.0143732 0.0123815 0.0308275 0.0377179 0.0483058 -0.00330945 0.0186615 -0.00157179 0.0105587 -0.0074907 -0.0312963 -0.0177353 -0.0194381 0.0137061 -0.00961618 -0.023528 -0.0279179 0.11181 -0.04668
internal_count=30000 11032 18968 9534 9315 1498 9653 6947 6915 1387 7305 2808 2619 1657 1047 2765 962 4139 4150 3088 2348 2368 4217 340 990 1378 1934 111 414
is_linear=0
shrinkage=0.05


Tree=9
num_leaves=30
num_cat=0
split_feature=20 20 20 11 11 20 20 10 0 21 0 25 17 4 12 16 20 4 6 22 21 14 6 1 9 4 23 20 18
split_gain=237.16 67.5418 33.9728 20.0734 17.8536 15.6336 13.7831 13.1535 12.8667 15.7388 12.5105 16.4363 15.5601 12.1506 11.7416 11.5825 9.08438 8.96332 8.40195 8.23106 7.95944 7.33884 7.00087 6.06408 5.47802 4.96245 3.68919 2.93844 2.05075
threshold=0.099073916673660292 0.064934674650430693 0.13994818925857547 0.22463165223598483 0.28833003342151647 0.20500167459249499 0.042403355240821845 0.015300611965358259 86.818019866943374 0.30772925913333898 89.589836120605483 0.2508539110422135 0.33248299360275274 0.20321331918239596 0.43987825512886053 0.42378595471382147 0.09356174618005754 0.2837818711996079 0.63366398215293895 0.58424240350723278 0.31312997639179235 0.097619049251079573 0.64731165766716015 0.15233733505010608 0.30617126822471624 0.31148776412010198 78.358303070068374 0.015655637718737129 0.27158385515213018
decision_type=2 2 2 10 10 2 2 2 2 10 2 10 10 2 8 10 2 2 2 10 10 8 2 2 2 2 10 2 10
left_child=1 6 10 8 18 15 27 24 13 -10 12 20 23 -4 25 -5 -16 -13 21 -14 -12 -3 -20 -2 -8 -6 -9 -1 -29
right_child=2 4 3 5 14 -7 7 26 9 -11 11 17 19 -15 16 -17 -18 -19 22 -21 -22 -23 -24 -25 -26 -27 -28 28 -30
leaf_value=-0.04664559152416449 0.0082777023535001246 0.0093452267794410723 0.031634861653104293 0.08139647673319525 0.035716905310474299 0.17149578838790469 -0.014445210621530419 -0.0032359119488253661 -0.0040484425164888614 0.045506725218845384 0.045683403099051161 0.015082087077443171 0.064204900665655595 -0.020419747437512091 0.092249881025809541 0.021496813999190012 -0.014632104311941334 -0.019864485986470327 0.032013458412534591 0.017670130403165809 0.023895607753392861 -0.0068370664401599737 0.002109193936693351 -0.020969321204948804 0.0094643536201150184 -0.0081560215846030147 -0.032255015908296318 -0.03336973945050109 -0.016922971016945301
leaf_weight=42.378265514969826 385.4935931712389 74.660323202610016 22.095001831650734 20.93131722509861 10.25140803307295 2.8364232406020156 313.8712140545249 12.48729921877384 18.349021337926388 109.35095655918121 67.142331436276436 68.490057058632374 17.625435099005699 20.752542249858379 8.9225218668580037 14.681714266538618 2.0787320286035529 23.894852928817272 23.883784458041191 22.431958481669426 128.6834012567997 929.11875784397125 94.558722704648972 17.547692112624645 24.997284680604935 14.109497539699076 148.99367586523294 119.65595709532499 28.130316197872162
leaf_count=472 4096 801 232 217 109 29 3430 137 194 1138 710 724 185 219 94 153 22 254 255 235 1357 10042 1016 187 273 151 1634 1324 310
internal_value=-4.01519e-06 -0.010406 0.0204244 0.0381909 -0.0030124 0.0707277 -0.0227713 -0.0183286 0.0304569 0.0383712 0.0152949 0.0234098 0.00996453 0.00641828 0.0314595 0.0581006 0.0721011 0.00587388 -0.00413013 0.0393325 0.0315855 -0.00562036 0.00839875 0.00694322 -0.0126441 0.0107895 -0.0300755 -0.0342775 -0.0304076
internal_count=30000 20070 9930 2182 12490 399 7580 5474 1783 1332 7748 3045 4703 451 376 370 116 978 12114 420 2067 10843 1271 4283 3703 260 1771 2106 1634
is_linear=0
shrinkage=0.05


Tree=10
num_leaves=25
num_cat=0
split_feature=5 16 7 16 11 22 31 3 8 3 19 4 22 1 18 4 26 19 15 20 3 26 20 20
split_gain=10.8766 8.39334 9.56165 9.90816 8.85988 10.6036 9.83319 10.1078 9.12885 8.54861 8.43487 6.71383 6.85368 6.42611 5.34903 4.60795 4.73889 3.98464 2.97225 2.63313 2.71781 2.49106 2.11921 1.56776
threshold=0.15671420097351077 0.49350211024284368 0.26559560000896459 0.37661872804164892 0.20508208870887759 0.61248508095741283 1.0000000180025095e-35 0.48790314793586737 0.21622028201818469 0.54652053117752086 0.29162771999835974 0.27564620971679693 0.66497835516929638 0.12304222211241723 0.19939759373664859 0.11269841343164445 0.29679679870605474 0.1572680398821831 0.28442341089248663 0.069982934743165984 0.44517327845096594 0.16367912292480472 0.051136950030922897 0.13632178306579593
decision_type=2 10 2 10 10 10 2 2 2 2 2 2 10 2 10 2 2 2 10 2 2 2 2 2
left_child=1 2 11 10 5 8 7 -6 -3 -5 -4 12 -1 14 18 -16 -17 -7 -2 20 -15 -8 -22 -13
right_child=13 4 3 9 6 17 21 -9 -10 -11 -12 23 -14 19 15 16 -18 -19 -20 -21 22 -23 -24 -25
leaf_value=-0.012668278088659904 -0.027944262049623966 0.0075088308962793565 0.048387036778762743 -0.0068023207116262811 0.15050483189025893 0.044928144960206445 0.055456646494260492 0.020781153291185364 0.062402501298675687 0.097232684116742074 -0.024830071355111834 -0.035065534337442965 0.013969047547426675 -0.017121163802851981 -0.014901960961723843 0.11558485900546536 0 -0.027495023725130886 0.062277795464355169 -0.031457886296008472 -0.0068857097134849311 -0.0089360092668789078 0.10779764653019622 0
leaf_weight=124.11521981284022 2.0228890962898718 45.173375762999058 19.397602853365246 55.08140026871115 2.5391848012804967 1.1223684605211044 0.89816281292587508 3.4483738308772445 8.2763548558577877 1.0445168362930406 4.1142083872109643 31.640754225663841 28.883392352610826 0.81610152218490728 0.67779602389782656 4.8753000060096383 1.084586097858846 22.849741403013468 0.30722530651837576 2.8558747982606292 0.31827737018465996 6.0593658071011305 0.24470898322761059 3.3125132909044614
leaf_count=10063 165 3643 1571 4454 203 91 72 276 664 84 333 2565 2349 67 52 360 80 1848 25 236 26 483 20 270
internal_value=7.215e-05 -0.00161261 -0.00607368 0.00833733 0.0114644 0.00472038 0.0482098 0.0901755 0.0170905 -0.00311049 0.0348809 -0.0122181 -0.00754911 0.0429993 0.0650094 0.0852434 0.0978556 -0.0222406 0 -0.00616853 0.03531 0.00467271 0.0768397 -0.0317378
internal_count=30000 28969 21689 6442 7280 6246 1034 479 4307 4538 1904 15247 12412 1031 682 492 440 1939 190 349 113 555 46 2835
is_linear=0
shrinkage=0.05


Tree=11
num_leaves=31
num_cat=0
split_feature=19 19 4 18 21 7 17 1 21 4 17 5 4 9 7 20 25 3 22 21 22 12 18 15 19 15 3 1 1 25
split_gain=61.0207 35.8457 22.454 24.0446 19.9299 17.4642 15.2644 13.6977 13.2386 12.2926 11.3096 10.5898 8.41449 13.6606 8.26704 8.39538 8.02147 8.89808 7.97743 7.65532 7.87371 6.96589 7.00452 6.63378 6.1188 5.96085 7.44795 4.90909 4.46503 3.35706
threshold=0.27957420051097875 0.14059797674417499 0.22119639068841937 0.28171628713607794 0.32784330844879156 0.33441625535488134 0.28142252564430242 0.11827835440635683 0.29643127322196966 0.38348416984081274 0.15771448612213138 0.081130944192409529 0.20631361752748492 0.062819093465805068 0.0018168986425735059 0.10690476372838022 0.17429208755493167 0.43834708631038671 0.52373099327087413 0.2884203046560288 0.62217000126838695 0.19522868096828463 0.3091846257448197 0.2119429633021355 0.29799316823482519 0.19355250149965289 0.42590074241161352 0.12481690570712091 0.10462918132543565 0.24687051773071292
decision_type=2 2 2 10 10 2 10 2 10 2 10 2 2 2 2 2 10 2 10 10 10 8 8 10 2 10 2 2 2 10
left_child=1 7 3 5 10 -3 12 16 -5 11 25 -4 13 -6 15 -9 28 -18 -14 24 -21 23 -23 -8 -12 26 -2 -16 -1 -11
right_child=4 2 9 8 6 -7 21 14 -10 29 19 -13 18 -15 27 -17 17 -19 -20 20 -22 22 -24 -25 -26 -27 -28 -29 -30 -31
leaf_value=-0.037411504286810185 0.085454117286125814 0.001502290977800928 0.0025257664600888976 -0.0043272135869124222 0.045832504859970549 0.021592203837163218 -0.0059055060352908671 0.046421186851497889 0.032340546021989172 -0.0079845107444459044 -0.0074874953048641169 -0.0057526350908628674 0.034783255762670613 0.0039193518471674167 -0.019777358080223427 -0.036381854505004731 -0.0025115162500773374 0.03083953226167694 -0.0069500918634380253 -0.010397807961701939 -0.028753398708151912 -0.023827200233398776 0.041795984764725895 0.069629764856154797 -0.034900111788185285 -0.029015073756544447 0.009527653671602708 0.0053501281957904386 0.029419880343367361 -0.037580848025654333
leaf_weight=6.9856067597866041 3.0055321604013505 968.74310930073261 731.03405107557774 30.277020156383514 23.7774468511343 120.92038816213608 9.1520421952009183 17.936870187520984 120.94258807599545 15.524904429912565 25.805286467075348 815.99060326814651 11.231423795223234 92.926210030913353 23.360631123185158 2.8120757192373267 21.797294929623604 195.65975317358971 175.04277953505516 200.2885118573904 83.754529893398285 116.48172982037067 3.2745248675346366 3.1079124957323065 120.46878930926323 6.1914280056953421 19.689551025629044 95.089567855000496 2.6921000778675079 29.901296719908714
leaf_count=52 22 7073 5345 220 173 871 67 128 880 115 193 6010 83 676 171 20 156 1403 1292 1487 623 863 24 22 902 46 146 696 20 221
internal_value=1.4044e-06 0.00323019 0.00132256 0.00636349 -0.0115371 0.00375401 -0.00383915 0.017927 0.0249859 -0.00260387 -0.0187942 -0.00183841 0.00233793 0.0128181 0.00547567 0.0338123 0.0254784 0.0274774 -0.00423478 -0.0208314 -0.0159097 -0.0179641 -0.0216602 0.0166728 -0.0301817 0.0110669 0.0229757 0.000228569 -0.0173382 -0.0279635
internal_count=30000 23381 20735 9044 6619 7944 3200 2646 1100 11691 3419 11355 2224 849 1015 148 1631 1559 1375 3205 2110 976 887 89 1095 214 168 867 72 336
is_linear=0
shrinkage=0.05


Tree=12
num_leaves=30
num_cat=0
split_feature=19 4 21 18 19 19 14 10 23 22 4 9 9 21 5 23 23 22 14 18 2 19 7 3 6 30 23 24 14
split_gain=20.0398 19.5177 20.7535 10.8267 13.3658 9.39928 9.69976 10.1048 9.24157 8.73707 8.54486 11.0631 8.73082 8.2772 9.87542 8.38058 7.89063 6.83764 6.80825 6.98909 5.17405 4.4029 2.84196 6.75089 2.37911 2.12589 1.08503 0.540156 0.477549
threshold=0.25577834248542791 0.18217893689870837 0.33355295658111578 0.26157093048095709 0.22510023415088656 0.11408293619751932 0.17974359542131427 0.1824692785739899 86.890407562255874 0.80518263578414928 0.12556306272745135 0.091115586459636702 0.17465543001890185 0.30131806433200842 0.12859255075454715 84.798233032226577 82.802768707275405 0.42465063929557806 0.14670014381408694 0.26778683066368109 0.29620639979839331 0.22567767649888995 0.36440727114677435 0.45524613559246069 0.65281409025192272 1.0000000180025095e-35 83.233211517333999 0.28958486020565039 0.2817541658878327
decision_type=2 2 10 10 2 2 10 2 10 10 2 2 2 10 2 8 10 10 10 10 2 2 2 2 2 2 10 10 10
left_child=1 2 3 21 -5 6 25 -8 9 -4 11 27 16 15 -15 -7 -13 22 19 -19 -20 -1 24 -24 -12 -3 -14 -2 -10
right_child=10 5 8 4 -6 13 7 -9 28 -11 17 12 26 14 -16 -17 -18 18 20 -21 -22 -23 23 -25 -26 -27 -28 -29 -30
leaf_value=-0.0099379603874095584 -0.033869330132368911 0.0081734600822081747 0.040080207564175178 0.042813204018602342 -0.024924635790383273 -0.011839551191740872 0.060090652437602081 -0.024278434134231267 -0.033496584098416278 0.12258393914585708 -0.034862879696415335 0.16524732585412205 -0.025611255926016818 0.0046835063040840145 -0.017140735537555529 0.054479287690683581 0.025119233822674603 -0.026193835148111612 0.00029290548972495648 0.006742226753783386 -0.014951620144584361 0.017920765464663854 0.060463373725256953 -0.029119660700451612 0.0042165732434076859 -0.036394577340104713 0.023266422129871744 0.0021114119685649367 0.00049162464926707985
leaf_weight=66.157267581671476 3.3034932389855367 4.395583391189577 58.893043447285891 30.514663480222225 8.6442756690084916 171.8946117721498 17.807204045355324 3.6993011012673369 3.1427833922207347 2.8059206046164027 40.903148882091045 1.7988540679216383 1.5153110958635809 493.18611927330494 56.860472746193409 3.8986888006329528 2.3934592865407467 73.622268673032522 214.15546976402402 19.801562689244747 73.902679678052664 16.9297447912395 2.2069514356553546 5.0956625305116177 3.8222842663526526 4.4452950470149517 1.0380208007991312 0.89853502437472332 0.96215789020061482
leaf_count=1428 73 94 1233 642 182 3719 372 79 66 58 912 36 31 10648 1236 84 48 1628 4638 426 1608 363 45 113 82 95 21 20 20
internal_value=3.75011e-06 0.00412768 0.018498 0.00614845 0.0274874 0.000527745 0.0273377 0.0449224 0.0409297 0.0458073 -0.0087358 0.0329766 0.0691668 -0.000622372 0.00239136 -0.0100406 0.106454 -0.00987416 -0.00749392 -0.0191625 -0.00363905 -0.00405641 -0.0267619 0.001373 -0.0313946 -0.0151489 -0.00337791 -0.0262874 -0.0260149
internal_count=30000 20319 3992 2615 824 16327 640 451 1377 1291 9681 229 136 15687 11884 3803 84 9452 8300 2054 6246 1791 1152 158 994 189 52 93 86
is_linear=0
shrinkage=0.05


Tree=13
num_leaves=29
num_cat=0
split_feature=26 17 26 21 11 11 14 15 17 12 17 3 6 2 22 25 22 25 2 3 26 1 20 17 0 10 3 1
split_gain=6.81106 10.9662 12.9141 9.92858 8.35337 16.4527 10.0829 8.12562 7.87054 7.65158 7.31858 11.6945 7.30442 7.35104 7.01468 6.59008 5.70108 6.75432 5.65755 5.38908 10.2903 5.19756 4.29095 3.76546 3.70838 2.99287 2.92337 0.992898
threshold=0.20048933476209643 0.30017668008804327 0.17728110402822497 0.27164565026760107 0.1316577419638634 0.12646438926458362 0.17131327837705615 0.2068985849618912 0.36425061523914343 0.432216227054596 0.19333503395318988 0.48233261704444891 0.54032507538795482 0.27256003022193914 0.53602123260498058 0.28804685175418859 0.53783768415451061 0.3019010871648789 0.31801165640354162 0.52272784709930431 0.30166012048721319 0.11508974805474283 0.038871100172400481 0.37843067944049841 85.228446960449233 0.23394771665334704 0.5213599205017091 0.15936893969774249
decision_type=2 10 2 8 8 8 10 10 10 10 10 2 2 2 10 10 8 10 2 2 2 2 2 10 2 2 2 2
left_child=1 3 15 12 5 16 -7 22 9 -4 11 -5 27 -14 -8 -3 17 -2 -12 23 -21 -17 26 -9 -24 -18 -6 -1
right_child=4 2 8 10 7 6 14 19 -10 -11 18 -13 13 -15 -16 21 25 -19 -20 20 -22 -23 24 -25 -26 -27 -28 -29
leaf_value=-0.02089476421702564 -0.012693379295246247 -0.03216231376136168 0.18448626980342131 -0.020390921995932034 -0.0024117841608288248 -0.018046246008818385 0.0056962748398143781 -0.0036989405932967624 -0.013079650330620782 -0.009723467297442466 -0.028942038321675575 0.10865393557483621 0.21451223853887813 -0.0080304914474831398 0.19102386782510697 -0.016069484922334749 -0.031035999018924731 0.07401852762096027 0.051310568299689809 -0.017775336070448435 0.18396971571493817 0.11848718243008359 0.010844920136685511 0.078633075519717544 -0.03113288412230172 0.021453527414818246 0.082970337971722957 0.037799210830458424
leaf_weight=1.1245649289339805 3.7690764437429669 3.160654764622449 2.2351119206286976 3.2040717168711152 2.5875412463210519 0.89070312166586463 0.79212020570412311 12.647972621489313 0.58620318211615074 0.4305795351974665 18.957173631992195 2.2044723588041961 0.31144351791590441 0.36303935432806611 1.5066261556930838 0.75642926013097145 10.560268514789639 3.5694905435666442 1.508842245209961 0.87106825783848651 0.26780324708670378 0.77896057162433863 5.1883264794014385 0.54151038685813624 49.752437315415591 2.6544538303278378 0.48882493982091535 0.088116118684410938
leaf_count=254 860 718 508 726 579 202 178 2896 132 99 4308 500 70 81 338 169 2430 811 341 196 60 172 1158 119 11383 584 108 20
internal_value=4.86683e-05 0.0184315 0.0665985 0.00263179 -0.006851 0.0182769 0.108586 -0.0153025 0.129866 0.157657 -0.00675053 0.0401735 0.0907854 0.158482 0.149764 0.00680171 0 0.0327024 -0.0206779 0.0173345 0.0911595 0.0700323 -0.0236047 0.00463235 -0.0269563 -0.0193731 0.0269544 0
internal_count=30000 8098 1798 6300 21902 5403 718 16499 739 607 5875 1226 425 151 516 1059 4685 1671 4649 3271 256 341 13228 3015 12541 3014 687 274
is_linear=0
shrinkage=0.05


Tree=14
num_leaves=26
num_cat=0
split_feature=22 17 17 22 26 22 5 13 16 22 13 17 4 3 5 14 13 0 8 24 5 6 7 12 25
split_gain=142.658 54.8161 25.1812 17.3674 19.0534 15.7103 12.7141 12.0711 11.7121 11.1587 10.1745 9.95865 9.68836 8.48465 8.19369 10.6341 7.1768 6.86692 6.42787 6.62772 6.3853 4.72714 0.984822 0.977 0.174383
threshold=0.54838192462921154 0.27529583871364599 0.45618839561939245 0.69445493817329418 0.14005071669816974 0.38598732650280004 0.133072204887867 0.38266584277153021 0.38405527174472814 0.59978914260864269 0.39559109508991247 0.30661800503730779 0.17554135620594027 0.47776611149311071 0.045831523835659034 0.24871134012937549 0.24926035851240161 89.37937164306642 0.38482850790023809 0.20859097689390185 0.099839229136705412 0.10734937712550165 0.57402652502059948 0.63818180561065685 0.50362318754196178
decision_type=10 10 10 10 2 10 2 8 10 10 10 10 2 2 2 10 10 2 2 10 2 2 2 10 10
left_child=5 3 9 4 16 22 -4 -6 14 11 -11 -3 17 -14 15 -7 -2 -5 19 -10 -20 -16 23 24 -1
right_child=1 2 6 12 7 8 -8 -9 18 10 -12 -13 13 -15 21 -17 -18 -19 20 -21 -22 -23 -24 -25 -26
leaf_value=-0.042277467717200715 0.1424261255815564 -0.003853051681137633 0.23602334220582977 0.028645843314285737 0.0074379120372849872 -0.010707993205683441 0.017603641359410612 -0.014090239653147769 -0.028720117868310753 0.037819066934283996 0.080930386580369162 0.03577053812152866 0.033016624783206799 0.0013194231889874638 0.0584530409846084 0.088218122983989192 0 0.093294566507255108 0.073674721142458807 -0.014313604898257077 -0.027771820644388424 -0.0072764026213344591 0.004581586455089731 0.0036876715692513505 -0.012922500891509592
leaf_weight=67.743098322302103 2.1426740884780879 29.156480271369219 1.4522139951586717 13.067530807107689 134.51112799346447 4.7938099168241006 1.2259662784636018 124.17571262642741 147.51835488155484 123.37633211165667 15.954216782003639 32.79456652700901 36.550845377147198 49.218017555773258 1.7987725809216488 4.5462018027901649 1.1705355159938333 6.5001201406121245 2.7004377841949454 186.63236652314663 1.8709530830383299 109.60276031494141 0.81093377992510696 0.84412526711821456 2.1021639890968791
leaf_count=1922 52 766 33 345 3665 129 29 3394 4110 3233 420 860 977 1317 49 124 30 160 71 5172 50 2989 22 23 58
internal_value=9.4744e-06 0.0173406 0.0380637 0.0057486 -0.00114577 -0.0186263 0.169368 -0.00289131 -0.0151526 0.0354633 0.0433327 0.0172778 0.0227933 0.0151098 -0.00171641 0.0408351 0.103055 0.0538563 -0.0199082 -0.0207553 0.0337254 -0.00566001 -0.0403622 -0.0410043 -0.0416594
internal_count=30000 15281 5341 9940 7141 14719 62 7059 12694 5279 3653 1626 2799 2294 3291 253 82 505 9403 9282 121 3038 2025 2003 1980
is_linear=0
shrinkage=0.05


Tree=15
num_leaves=31
num_cat=0
split_feature=19 11 22 22 13 5 19 2 5 19 2 22 18 1 24 17 15 1 17 24 0 22 25 11 15 0 26 18 13 24
split_gain=133.474 48.6249 46.5082 36.1772 24.1143 23.2846 21.0698 17.4853 16.5672 15.27 13.7143 13.3764 13.9371 11.5097 10.3015 9.63433 9.24792 9.18652 9.14871 9.44991 8.9055 8.21779 7.93608 7.83133 6.54547 6.14966 5.95924 5.57945 3.76555 3.29645
threshold=0.21443030983209613 0.17555713653564456 0.49538597464561468 0.76984986662864696 0.25660979747772222 0.12441897019743921 0.24798139929771426 0.28788620233535772 0.077174402773380293 0.33741709589958196 0.29684351384639746 0.38598732650280004 0.28295679390430456 0.086594413965940489 0.20077253133058551 0.15978723019361499 0.061737805604934699 0.14982674270868304 0.29085513949394232 0.26012536883354193 86.500816345214858 0.58959609270095836 0.29203644394874578 0.10708313435316087 0.15936508029699328 85.999797821044936 0.17272139340639117 0.18102537095546725 0.30455486476421362 0.28424410521984106
decision_type=2 8 8 8 8 2 2 2 2 2 2 10 10 2 10 10 8 2 10 10 2 8 10 8 8 2 2 10 10 10
left_child=2 3 11 6 16 9 14 -8 15 10 -3 24 13 -13 -2 -6 29 -11 19 -5 25 -10 -22 -18 28 -7 -14 -26 -1 -4
right_child=1 5 4 18 8 20 7 -9 21 17 -12 12 26 -15 -16 -17 23 -19 -20 -21 22 -23 -24 -25 27 -27 -28 -29 -30 -31
leaf_value=0.059678513908949848 0.019494617529254264 -0.003278729587386172 -0.02413082702808941 -0.047314796436351995 0.030238814782116898 -0.012286647527897931 0.00077511744422887284 -0.011803191897177028 -0.0013601101191471074 -0.015609118533735767 -0.012738359622870447 0.025172513556198945 0.0079067425397936087 0.011379057463220424 0.0049732495412696358 0.0037084149005391213 -0.0022433548529415203 -0.04149643362917517 -0.037104848449588466 -0.0101935035780198 -0.030672856144757083 -0.011179069509148883 -0.014586177888400756 0.01526519060071441 0.046560278384433357 0.030978388522348178 -0.012734001169031176 0.018568558001185276 0.017750759475767704 0.0090806710753055849
leaf_weight=19.034484714269642 147.63795700669289 1039.0677796900272 23.178784549236298 18.01043426990509 35.423736184835434 24.873308569192886 1108.0943659245968 366.7540779709816 528.89063021540642 198.10891619324684 608.80853617191315 179.6749392747879 63.786298185586929 993.87717601656914 703.93289172649384 597.1176805794239 73.458802103996277 41.734543442726135 50.723106622695923 200.67227825522423 210.67197635769844 357.79999339580536 127.51763063669205 453.83357304334641 19.586180359125137 11.019409090280531 74.737383008003235 197.33694007992744 9.3711172640323621 9.917020380496977
leaf_count=67 521 3673 82 64 125 88 3913 1297 1867 702 2154 633 225 3503 2485 2108 259 148 180 710 746 1264 451 1600 69 39 264 695 33 35
internal_value=-8.02955e-07 -0.00542416 0.00724078 -0.000751666 0.0023428 -0.0107818 0.00125781 -0.00235525 -0.000925701 -0.00851069 -0.00678223 0.0137722 0.0117446 0.0135148 0.00751662 0.00524745 0.0111986 -0.0202881 -0.0180632 -0.013475 -0.0221757 -0.00533605 -0.0246828 0.0128169 0.0245041 0.00134026 -0.00320513 0.021321 0.0470905 -0.014058
internal_count=30000 17171 12829 9170 7340 8001 8216 5210 5364 6677 5827 5489 4625 4136 3006 2233 1976 850 954 774 1324 3131 1197 1859 864 127 489 764 100 117
is_linear=0
shrinkage=0.05


Tree=16
num_leaves=31
num_cat=0
split_feature=26 2 2 26 26 26 26 11 26 11 11 24 2 11 11 16 9 6 26 23 16 20 11 23 12 26 26 20 14 11
split_gain=267.567 115.672 91.6337 72.7552 51.6828 29.0375 28.4593 19.7147 18.7815 18.4608 17.1612 18.2369 16.407 15.7903 13.4377 12.6015 12.5511 11.7171 11.4122 10.9074 10.5984 9.83442 9.1138 9.2906 8.43096 7.9318 6.52416 5.30045 5.22082 5.02139
threshold=0.25552879273891455 0.29417613148689276 0.27493655681610113 0.42405225336551672 0.18405928462743762 0.20017574727535251 0.33391405642032629 0.15545872598886493 0.32223950326442724 0.15925560146570208 0.20571066439151767 0.28199787437915808 0.23842090368270877 0.18046345561742785 0.2692598700523377 0.50821787118911754 0.0098199937492609041 0.25625422596931463 0.22090159356594088 81.647655487060561 0.45767383277416235 0.08940818160772325 0.28015989065170294 79.13122940063478 0.4536967277526856 0.14005071669816974 0.34257243573665624 0.04803846217691899 0.12060606107115747 0.12956301122903827
decision_type=2 2 2 2 2 2 2 8 2 8 10 10 2 10 8 10 2 2 2 10 10 2 8 10 10 2 2 2 10 10
left_child=2 3 5 6 14 22 12 28 10 16 17 -12 -2 -8 25 21 -6 -3 -11 29 -21 -10 23 -1 -9 -4 -17 -16 -7 -5
right_child=1 8 4 19 9 7 13 24 15 18 11 -13 -14 -15 27 26 -18 -19 -20 20 -22 -23 -24 -25 -26 -27 -28 -29 -30 -31
leaf_value=-0.0013906123488984538 -0.014464421040137683 0.053405606776729321 -0.024279012771851835 0.044578711801805671 0.011728631014609765 -0.02772434354818808 0.009591818317345284 -0.0053728870427176825 0.060401040430081626 0.0024267981953777153 0.044972743791552215 0.011851924009392875 0.0032477171493847041 0.033993285578046137 0.054348452250347914 0.040435269987170154 -0.0087725488769666935 0.01407394272790255 0.013755845067155218 -0.011314036824655628 0.080512823864470173 0.033860377909085318 0.021790242889435721 -0.025940937608403682 0.023433691532142462 -0.011222353387014002 -0.0029574758165083724 0.0040547722969775553 -0.015149491802455967 0.10503603590480895
leaf_weight=41.316698834300041 145.62874855101109 19.715111628174782 180.33773057162762 7.2321206778287914 96.104498267173767 106.53260672092438 181.8172272592783 464.83859251439571 91.944219380617142 404.48444320261478 152.76439352333546 58.800029322504997 1202.929320499301 105.23694252967834 4.858431711792945 13.806574329733847 320.86243762075901 267.25762820243835 497.26046647131443 6.7698266208171827 4.4365603178739548 66.407131791114807 9.8952882438898069 712.3674176633358 25.833038374781609 342.61989496648312 20.111550226807594 55.201435223221779 419.91067017614841 19.327938184142113
leaf_count=212 730 94 922 33 476 541 878 2330 427 2004 727 282 5930 501 24 66 1597 1286 2431 32 21 312 50 3657 128 1727 95 277 2124 86
internal_value=-2.04697e-05 0.0131023 -0.00844814 0.00598488 -0.000811609 -0.0165959 0.00437429 -0.011037 0.0303023 0.00466645 0.0250646 0.0358901 0.001322 0.018642 -0.0131976 0.0436573 -0.00401862 0.0169695 0.00868797 0.0736964 0.0282479 0.0495845 -0.0239699 -0.0246053 -0.00380152 -0.0157721 0.0152148 0.00902853 -0.0177514 0.0909702
internal_count=30000 11500 18500 8211 9458 9042 8039 5123 3289 6508 2389 1009 6660 1379 2950 900 2073 1380 4435 172 53 739 3919 3869 2458 2649 161 301 2665 119
is_linear=0
shrinkage=0.05


Tree=17
num_leaves=30
num_cat=0
split_feature=25 25 25 22 13 17 11 3 3 3 18 1 15 26 11 24 26 18 3 6 3 11 22 25 15 22 25 14 26
split_gain=130.12 41.5841 22.9147 30.7633 22.2558 15.6779 15.7714 16.4289 15.4207 13.313 15.2059 14.1901 12.8553 12.5476 11.5415 11.4419 11.2776 11.2085 8.74257 8.13421 8.30958 7.6774 7.02428 11.6425 6.86677 6.82326 5.61614 4.8943 2.30232
threshold=0.25236114859580999 0.32510161399841314 0.2061157822608948 0.46420066058635717 0.43140609562397009 0.33248299360275274 0.13356807827949527 0.46232801675796514 0.52272784709930431 0.48164771497249609 0.13076923787593844 0.11158080771565439 inf 0.20143289119005206 0.18502956628799441 0.18796958029270175 0.24741829186677936 0.3091846257448197 0.40591478347778326 0.68620809912681591 0.46071240305900579 0.13732974231243136 0.49212294816970831 0.34429721534252172 0.13184638321399691 0.78146708011627208 0.39792324602603918 0.25078617036342626 0.25747986137866979
decision_type=8 8 10 8 8 10 10 2 2 2 10 2 8 2 10 10 2 10 2 2 2 10 10 10 10 8 8 8 2
left_child=2 9 3 19 8 6 17 -8 -5 10 14 13 27 -11 -2 -12 -6 -4 22 20 -1 -14 -3 -24 26 -13 -20 -7 -26
right_child=1 18 5 4 16 12 7 -9 -10 11 15 25 21 -15 -16 -17 -18 -19 24 -21 -22 -23 23 -25 28 -27 -28 -29 -30
leaf_value=0.020199412807072534 0 -0.024669990124942427 -0.010275955171284474 0.026247714628878729 0.061395896778518748 0.023253668459009544 0.027157994123976806 0.0053899656027935365 -0.017767447780384034 -0.016105582541820197 -0.016843459795196341 -0.017515907038547499 0.089301949306358042 0.005083600814743996 0.1281063777552704 0.0045473752688017562 0.025708170812986028 0.043552647377700461 -0.013877480869854245 0.067450556392179839 -0.017042236713125557 0.034444688201662479 0.12893938289114074 -0.002625012010289945 -0.034803725020063812 0.011620344189317351 -0.029886557431542168 -0.023397092238694288 -0.021545141844169852
leaf_weight=19.361529916524887 3.0756377428770056 3.4126343876123411 159.03588687628508 147.83035366982222 70.904510505497456 9.391394257545473 114.40163546055555 354.95298717916012 22.116140969097614 96.456826783716679 71.427918195724487 297.90197438001633 7.6764092072844496 245.56549241393805 3.2134688571095467 454.18329054117203 36.048473805189133 9.2846355959773046 295.78443104028702 2.829317480325698 55.445120267570019 40.647911302745342 2.067553773522377 3.4765990227460861 95.17878246307373 20.659381441771984 68.887170277535915 11.217046484351156 65.638995319604874
leaf_count=202 33 37 1694 1522 719 97 1203 3774 232 1058 783 3251 80 2656 33 4880 368 98 3261 29 591 423 22 38 1068 221 776 117 734
internal_value=-4.28134e-06 -0.00847177 0.0137662 0.0241339 0.0319102 0.00853045 0.00604541 0.0107528 0.0204201 -0.00326615 0.00261194 -0.00800354 0.0310322 -0.000907108 0.0743509 0.00160451 0.0497632 -0.00703753 -0.0200497 -0.00359086 -0.00719805 0.0448941 0.0266067 0.0578803 -0.0209034 -0.0155803 -0.0169888 -0.00181435 -0.0295896
internal_count=30000 18851 11149 3663 2841 7486 6769 4977 1754 12915 5729 7186 717 3714 66 5663 1087 1792 5936 822 793 503 97 60 5839 3472 4037 214 1802
is_linear=0
shrinkage=0.05


Tree=18
num_leaves=28
num_cat=0
split_feature=12 5 13 2 31 25 23 1 23 23 9 26 6 24 22 17 25 21 17 28 25 17 5 14 9 23 4
split_gain=11.88 11.9555 11.6689 11.3829 14.4546 11.2942 9.30852 11.6236 8.67806 13.0748 12.0948 9.96133 6.451 7.01446 6.25027 6.61705 5.70801 4.99874 5.75105 4.94334 4.27923 2.78671 2.55746 2.45371 1.72423 1.01901 0.667177
threshold=0.22653958946466449 0.17956949770450595 0.45383523404598242 0.26592318713665014 1.0000000180025095e-35 0.32722964882850653 81.301723480224624 0.10523728281259538 83.049434661865249 82.868705749511733 0.053365454077720649 0.21213927119970324 0.61597451567649852 0.22669366002082827 0.79225322604179393 0.22966092824935916 0.23874963074922564 0.34684807062149053 0.33457711338996893 1.0000000180025095e-35 0.39792324602603918 0.20499465614557269 0.16784037649631503 0.17519181966781619 0.081004790961742415 85.622722625732436 0.17357069998979571
decision_type=8 2 8 2 2 10 10 2 8 10 2 2 2 10 8 8 10 10 10 2 8 10 2 10 2 10 2
left_child=2 8 14 12 5 -5 7 -3 9 10 -2 -11 24 -14 19 -16 23 22 -19 20 -1 -6 -10 -8 -4 -21 -17
right_child=1 6 3 4 21 -7 16 -9 17 11 -12 -13 13 -15 15 26 -18 18 -20 25 -22 -23 -24 -25 -26 -27 -28
leaf_value=0.0065196609893747428 0.017505676611236379 0.21481567823236036 0.015532800045071361 0.19727888201976426 0.053322037946193758 -0.013024233450902615 0.10559481354473091 -0.01358019686261517 -0.024093971810680678 -0.029461887643273978 -0.010252636934878115 0.074309192071631974 -0.020705197570911757 0.11002459960919407 0.14997883671542464 0.026342530099023827 -0.029747225963758395 -0.0081133658747577827 0.045907852613590261 -0.030644940405807081 0.08763502128049358 -0.025566680401783656 0.040341972559043059 -0.0083474996379350862 -0.033081951495248875 0.017486220063055377 -0.019819171836362601
leaf_weight=20.459727761335675 57.12963170837611 0.69537150114774593 2.1654841620475036 2.6813330426812167 0.93913623131811652 0.57688724901527155 0.59632439911365542 0.60557784326374531 73.465690471231937 2.3295579813420764 119.64188529644161 9.0306460587307793 1.0911604547873142 1.8468265114352105 0.4892036300152528 0.26422042772173893 2.3905645413324237 51.586322918534279 4.4271894991397849 9.9867996945977211 0.81407385785132547 1.6353254793211816 0.64593408349901338 0.37121666967868805 3.4097776273265481 0.44566289521753866 1.0159382028505204
leaf_count=1649 4575 50 169 198 68 44 41 47 6032 181 9742 705 84 138 38 20 179 4214 356 819 64 127 49 27 269 35 80
internal_value=0.000122292 -0.00333004 0.0231274 0.0592953 0.107825 0.164555 0.0686768 0.14663 -0.00461165 0.00223641 -0.00120547 0.0519631 0.0176814 0.0672737 0.00621232 0.0782482 0.0106141 -0.0144921 -0.00302562 0 0.0136432 0.00867884 -0.0229362 0.0773134 -0.0139485 -0.0268018 -0.000724275
internal_count=30000 26198 3802 1097 437 242 344 97 25854 15203 14317 886 660 222 2705 138 247 10651 4570 2567 1713 195 6081 68 438 854 100
is_linear=0
shrinkage=0.05


Tree=19
num_leaves=31
num_cat=0
split_feature=19 19 20 4 18 21 17 4 17 1 18 3 10 25 3 4 10 20 20 21 22 18 10 13 26 11 18 19 13 0
split_gain=55.6129 32.5977 24.2894 19.7586 21.5145 18.715 14.211 12.1697 10.5901 10.1007 12.1383 12.0273 10.5185 9.42944 10.2893 9.48488 9.13095 8.78925 8.08173 7.38551 7.50118 7.24207 7.1654 6.51864 7.39761 6.07791 5.94908 5.87589 4.34874 2.93012
threshold=0.27957420051097875 0.15404608100652697 0.098679367452859892 0.21448230743408206 0.28171628713607794 0.32784330844879156 0.28408057987689977 0.38348416984081274 0.157714